4.608738599716918211e-02
1.787314537986986196e-01
2.044261379701847736e-01
2.220748303072848373e-01
2.209457888677751058e-01
1.676367256679444639e-01
-4.583890874512842883e-02
-2.205038012263574598e-01
9.452207224170429412e-02
2.404438237291299796e-01
1.857562436556400853e-01
1.058054109536919474e-01
6.362402555873782062e-02
1.462738985026422467e-01
8.320819807808220447e-02
-1.708036297899173106e-01
-2.373807842835668758e-01
-3.359802617703314120e-02
1.510285475901165797e-01
2.019661605930117565e-02
5.768687443197764025e-02
5.387422119638194534e-02
-4.564278326831913007e-02
1.047945347042077147e-01
5.138137547344604622e-02
-1.374378860015110747e-02
-1.203444367280021889e-02
1.016226338751385488e-01
-7.968674367326812613e-02
2.951099630972557966e-02
-1.282073418707123935e-01
4.271483974882191864e-02
1.230763745034630166e-02
1.979194205545376818e-03
7.987308528357592308e-02
-1.923436676302215653e-01
-4.603790982460767220e-03
8.016666336853715824e-02
-7.067073102696909415e-02
-1.791056039165876412e-01
2.421101118052755852e-01
-1.674484682195441221e-01
-5.555979501022938194e-02
1.081940714837381634e-01
2.451033834885223417e-01
1.027656319207235769e-01
1.104688304642837127e-01
1.813927827803893111e-01
1.960163066607074622e-01
-3.661974824977409781e-02
-6.108670440558333810e-03
3.430162973460641751e-02
2.329996803739049077e-02
3.934558447395740573e-03
-2.467759664858508104e-02
-2.265143456311895665e-03
4.004514846266308582e-03
8.438470593730332259e-03
5.937959619802138898e-03
-2.230543657351002386e-03
-2.964716969862998819e-01
